<?xml version="1.0"?>
<opencv_storage>
<cascade>
  <stageType>BOOST</stageType>
  <featureType>HAAR</featureType>
  <height>24</height>
  <width>48</width>
  <stageParams>
    <boostType>GAB</boostType>
    <minHitRate>9.9500000476837158e-01</minHitRate>
    <maxFalseAlarm>5.0000000000000000e-01</maxFalseAlarm>
    <weightTrimRate>9.4999999999999996e-01</weightTrimRate>
    <maxDepth>1</maxDepth>
    <maxWeakCount>100</maxWeakCount></stageParams>
  <featureParams>
    <maxCatCount>0</maxCatCount>
    <featSize>1</featSize>
    <mode>BASIC</mode></featureParams>
  <stageNum>19</stageNum>
  <stages>
    <!-- stage 0 -->
    <_>
      <maxWeakCount>4</maxWeakCount>
      <stageThreshold>-1.0812615156173706e+00</stageThreshold>
      <weakClassifiers>
        <_>
          <internalNodes>
            0 -1 30 3.5693340003490448e-02</internalNodes>
          <leafValues>
            -7.5000000000000000e-01 7.8688526153564453e-01</leafValues></_>
        <_>
          <internalNodes>
            0 -1 7 -8.3453375846147537e-03</internalNodes>
          <leafValues>
            6.9091099500656128e-01 -6.5270942449569702e-01</leafValues></_>
        <_>
          <internalNodes>
            0 -1 106 1.5732925385236740e-02</internalNodes>
          <leafValues>
            -4.5758765935897827e-01 7.9418838024139404e-01</leafValues></_>
        <_>
          <internalNodes>
            0 -1 44 -4.3112500570714474e-03</internalNodes>
          <leafValues>
            7.7903550863265991e-01 -3.8306513428688049e-01</leafValues></_></weakClassifiers></_>
    <!-- stage 1 -->
    <_>
      <maxWeakCount>6</maxWeakCount>
      <stageThreshold>-1.5405499935150146e+00</stageThreshold>
      <weakClassifiers>
        <_>
          <internalNodes>
            0 -1 57 2.6419892907142639e-02</internalNodes>
          <leafValues>
            -7.3966944217681885e-01 6.9379842281341553e-01</leafValues></_>
        <_>
          <internalNodes>
            0 -1 26 -4.0955111384391785e-02</internalNodes>
          <leafValues>
            5.9624254703521729e-01 -5.9079337120056152e-01</leafValues></_>
        <_>
          <internalNodes>
            0 -1 94 -4.0332642383873463e-03</internalNodes>
          <leafValues>
            5.6250315904617310e-01 -5.6276649236679077e-01</leafValues></_>
        <_>
          <internalNodes>
            0 -1 43 -7.9879444092512131e-03</internalNodes>
          <leafValues>
            6.5493607521057129e-01 -3.5942587256431580e-01</leafValues></_>
        <_>
          <internalNodes>
            0 -1 77 -4.9270212184637785e-04</internalNodes>
          <leafValues>
            -8.5801416635513306e-01 2.7290216088294983e-01</leafValues></_>
        <_>
          <internalNodes>
            0 -1 104 7.1099670603871346e-03</internalNodes>
          <leafValues>
            -5.4343533515930176e-01 4.3920296430587769e-01</leafValues></_></weakClassifiers></_>
    <!-- stage 2 -->
    <_>
      <maxWeakCount>5</maxWeakCount>
      <stageThreshold>-1.5872086286544800e+00</stageThreshold>
      <weakClassifiers>
        <_>
          <internalNodes>
            0 -1 33 -3.0792986974120140e-02</internalNodes>
          <leafValues>
            7.2307693958282471e-01 -4.6229508519172668e-01</leafValues></_>
        <_>
          <internalNodes>
            0 -1 9 -1.1498862877488136e-02</internalNodes>
          <leafValues>
            5.0654697418212891e-01 -5.6437635421752930e-01</leafValues></_>
        <_>
          <internalNodes>
            0 -1 85 6.1315596103668213e-03</internalNodes>
          <leafValues>
            -6.1474245786666870e-01 4.7241151332855225e-01</leafValues></_>
        <_>
          <internalNodes>
            0 -1 51 -3.1277320813387632e-03</internalNodes>
          <leafValues>
            7.9775184392929077e-01 -3.3970701694488525e-01</leafValues></_>
        <_>
          <internalNodes>
            0 -1 96 2.3074718192219734e-03</internalNodes>
          <leafValues>
            -7.4354654550552368e-01 3.4486472606658936e-01</leafValues></_></weakClassifiers></_>
    <!-- stage 3 -->
    <_>
      <maxWeakCount>6</maxWeakCount>
      <stageThreshold>-1.4409366846084595e+00</stageThreshold>
      <weakClassifiers>
        <_>
          <internalNodes>
            0 -1 20 -1.2858495116233826e-01</internalNodes>
          <leafValues>
            5.1111114025115967e-01 -6.0000002384185791e-01</leafValues></_>
        <_>
          <internalNodes>
            0 -1 27 -5.8209143579006195e-02</internalNodes>
          <leafValues>
            7.8952366113662720e-01 -4.1177487373352051e-01</leafValues></_>
        <_>
          <internalNodes>
            0 -1 63 7.2186728939414024e-03</internalNodes>
          <leafValues>
            -4.3457800149917603e-01 6.0041201114654541e-01</leafValues></_>
        <_>
          <internalNodes>
            0 -1 93 5.6418990716338158e-03</internalNodes>
          <leafValues>
            -3.1640300154685974e-01 7.7702981233596802e-01</leafValues></_>
        <_>
          <internalNodes>
            0 -1 16 -6.1677489429712296e-04</internalNodes>
          <leafValues>
            4.4574779272079468e-01 -5.4746454954147339e-01</leafValues></_>
        <_>
          <internalNodes>
            0 -1 73 6.4820639789104462e-02</internalNodes>
          <leafValues>
            -3.3201476931571960e-01 6.6267234086990356e-01</leafValues></_></weakClassifiers></_>
    <!-- stage 4 -->
    <_>
      <maxWeakCount>7</maxWeakCount>
      <stageThreshold>-1.5091342926025391e+00</stageThreshold>
      <weakClassifiers>
        <_>
          <internalNodes>
            0 -1 108 4.1161067783832550e-03</internalNodes>
          <leafValues>
            -6.1520189046859741e-01 4.4732296466827393e-01</leafValues></_>
        <_>
          <internalNodes>
            0 -1 49 -4.4487584382295609e-03</internalNodes>
          <leafValues>
            7.4225205183029175e-01 -3.8608375191688538e-01</leafValues></_>
        <_>
          <internalNodes>
            0 -1 71 2.5059739127755165e-03</internalNodes>
          <leafValues>
            2.7914839982986450e-01 -8.6182612180709839e-01</leafValues></_>
        <_>
          <internalNodes>
            0 -1 75 -7.1808695793151855e-04</internalNodes>
          <leafValues>
            -8.4574353694915771e-01 2.7206441760063171e-01</leafValues></_>
        <_>
          <internalNodes>
            0 -1 89 2.7724080719053745e-03</internalNodes>
          <leafValues>
            -4.4126269221305847e-01 6.1754679679870605e-01</leafValues></_>
        <_>
          <internalNodes>
            0 -1 3 -1.6233637928962708e-02</internalNodes>
          <leafValues>
            6.1444240808486938e-01 -3.1630879640579224e-01</leafValues></_>
        <_>
          <internalNodes>
            0 -1 59 -4.4364817440509796e-02</internalNodes>
          <leafValues>
            6.5420871973037720e-01 -3.0148994922637939e-01</leafValues></_></weakClassifiers></_>
    <!-- stage 5 -->
    <_>
      <maxWeakCount>6</maxWeakCount>
      <stageThreshold>-8.7569111585617065e-01</stageThreshold>
      <weakClassifiers>
        <_>
          <internalNodes>
            0 -1 39 -3.7949737161397934e-03</internalNodes>
          <leafValues>
            5.5102038383483887e-01 -5.2941179275512695e-01</leafValues></_>
        <_>
          <internalNodes>
            0 -1 107 4.4521577656269073e-03</internalNodes>
          <leafValues>
            -5.3529417514801025e-01 5.0063794851303101e-01</leafValues></_>
        <_>
          <internalNodes>
            0 -1 61 -5.4264366626739502e-03</internalNodes>
          <leafValues>
            -9.0715396404266357e-01 2.2794368863105774e-01</leafValues></_>
        <_>
          <internalNodes>
            0 -1 28 4.7679780982434750e-03</internalNodes>
          <leafValues>
            -3.2771515846252441e-01 7.8771930932998657e-01</leafValues></_>
        <_>
          <internalNodes>
            0 -1 14 -2.7809315361082554e-03</internalNodes>
          <leafValues>
            5.7328855991363525e-01 -3.6470440030097961e-01</leafValues></_>
        <_>
          <internalNodes>
            0 -1 31 1.2580993771553040e-01</internalNodes>
          <leafValues>
            -2.8450226783752441e-01 7.8429311513900757e-01</leafValues></_></weakClassifiers></_>
    <!-- stage 6 -->
    <_>
      <maxWeakCount>7</maxWeakCount>
      <stageThreshold>-1.0898655652999878e+00</stageThreshold>
      <weakClassifiers>
        <_>
          <internalNodes>
            0 -1 41 -6.4582629129290581e-03</internalNodes>
          <leafValues>
            5.6306308507919312e-01 -4.4964027404785156e-01</leafValues></_>
        <_>
          <internalNodes>
            0 -1 105 2.6147123426198959e-02</internalNodes>
          <leafValues>
            -4.0548226237297058e-01 5.6250029802322388e-01</leafValues></_>
        <_>
          <internalNodes>
            0 -1 10 -4.3599018827080727e-03</internalNodes>
          <leafValues>
            3.3342078328132629e-01 -6.2365287542343140e-01</leafValues></_>
        <_>
          <internalNodes>
            0 -1 68 6.7052070517092943e-04</internalNodes>
          <leafValues>
            2.9317235946655273e-01 -8.4011429548263550e-01</leafValues></_>
        <_>
          <internalNodes>
            0 -1 100 -2.4295796174556017e-03</internalNodes>
          <leafValues>
            5.1338118314743042e-01 -4.0018931031227112e-01</leafValues></_>
        <_>
          <internalNodes>
            0 -1 72 6.9834827445447445e-04</internalNodes>
          <leafValues>
            2.0067635178565979e-01 -8.7285017967224121e-01</leafValues></_>
        <_>
          <internalNodes>
            0 -1 86 1.6985941911116242e-03</internalNodes>
          <leafValues>
            -5.5627918243408203e-01 3.2391712069511414e-01</leafValues></_></weakClassifiers></_>
    <!-- stage 7 -->
    <_>
      <maxWeakCount>8</maxWeakCount>
      <stageThreshold>-1.2008204460144043e+00</stageThreshold>
      <weakClassifiers>
        <_>
          <internalNodes>
            0 -1 52 -1.8008366227149963e-02</internalNodes>
          <leafValues>
            7.1608835458755493e-01 -3.3235725760459900e-01</leafValues></_>
        <_>
          <internalNodes>
            0 -1 50 -1.9940987695008516e-03</internalNodes>
          <leafValues>
            6.1774605512619019e-01 -3.8736155629158020e-01</leafValues></_>
        <_>
          <internalNodes>
            0 -1 32 -1.7913348972797394e-02</internalNodes>
          <leafValues>
            3.0672731995582581e-01 -6.4780938625335693e-01</leafValues></_>
        <_>
          <internalNodes>
            0 -1 35 -8.5497256368398666e-03</internalNodes>
          <leafValues>
            7.5558561086654663e-01 -2.9849481582641602e-01</leafValues></_>
        <_>
          <internalNodes>
            0 -1 84 -4.6565020456910133e-03</internalNodes>
          <leafValues>
            6.3345080614089966e-01 -2.5760328769683838e-01</leafValues></_>
        <_>
          <internalNodes>
            0 -1 67 -8.7994214845821261e-04</internalNodes>
          <leafValues>
            -7.9074823856353760e-01 1.9977794587612152e-01</leafValues></_>
        <_>
          <internalNodes>
            0 -1 0 7.6046760659664869e-04</internalNodes>
          <leafValues>
            -5.9667700529098511e-01 2.9369539022445679e-01</leafValues></_>
        <_>
          <internalNodes>
            0 -1 54 -1.4074672944843769e-03</internalNodes>
          <leafValues>
            2.2933249175548553e-01 -7.5322282314300537e-01</leafValues></_></weakClassifiers></_>
    <!-- stage 8 -->
    <_>
      <maxWeakCount>8</maxWeakCount>
      <stageThreshold>-1.5020337104797363e+00</stageThreshold>
      <weakClassifiers>
        <_>
          <internalNodes>
            0 -1 101 -2.9204492457211018e-03</internalNodes>
          <leafValues>
            6.9151669740676880e-01 -4.4026187062263489e-01</leafValues></_>
        <_>
          <internalNodes>
            0 -1 45 -5.9445025399327278e-03</internalNodes>
          <leafValues>
            6.3995528221130371e-01 -3.3382210135459900e-01</leafValues></_>
        <_>
          <internalNodes>
            0 -1 24 4.2164571583271027e-02</internalNodes>
          <leafValues>
            -5.4920774698257446e-01 3.9611613750457764e-01</leafValues></_>
        <_>
          <internalNodes>
            0 -1 2 -2.0513288676738739e-02</internalNodes>
          <leafValues>
            5.3933262825012207e-01 -3.7862893939018250e-01</leafValues></_>
        <_>
          <internalNodes>
            0 -1 109 8.5741067305207253e-03</internalNodes>
          <leafValues>
            -3.6516186594963074e-01 5.8994823694229126e-01</leafValues></_>
        <_>
          <internalNodes>
            0 -1 60 -4.5925695449113846e-03</internalNodes>
          <leafValues>
            -9.8132175207138062e-01 2.6390880346298218e-01</leafValues></_>
        <_>
          <internalNodes>
            0 -1 74 -2.0167214795947075e-02</internalNodes>
          <leafValues>
            5.5883044004440308e-01 -3.8956221938133240e-01</leafValues></_>
        <_>
          <internalNodes>
            0 -1 97 8.6511555127799511e-04</internalNodes>
          <leafValues>
            -2.8307518362998962e-01 6.0016375780105591e-01</leafValues></_></weakClassifiers></_>
    <!-- stage 9 -->
    <_>
      <maxWeakCount>9</maxWeakCount>
      <stageThreshold>-9.7121083736419678e-01</stageThreshold>
      <weakClassifiers>
        <_>
          <internalNodes>
            0 -1 87 5.7843001559376717e-03</internalNodes>
          <leafValues>
            -6.2962961196899414e-01 3.8263666629791260e-01</leafValues></_>
        <_>
          <internalNodes>
            0 -1 46 -5.2373497746884823e-03</internalNodes>
          <leafValues>
            6.8057209253311157e-01 -3.7368109822273254e-01</leafValues></_>
        <_>
          <internalNodes>
            0 -1 8 -4.2287488467991352e-03</internalNodes>
          <leafValues>
            4.3480297923088074e-01 -5.4920917749404907e-01</leafValues></_>
        <_>
          <internalNodes>
            0 -1 103 5.5831123609095812e-04</internalNodes>
          <leafValues>
            -3.2378274202346802e-01 6.3956665992736816e-01</leafValues></_>
        <_>
          <internalNodes>
            0 -1 70 4.9750213511288166e-03</internalNodes>
          <leafValues>
            -4.3395417928695679e-01 5.1242786645889282e-01</leafValues></_>
        <_>
          <internalNodes>
            0 -1 29 -5.7571721263229847e-03</internalNodes>
          <leafValues>
            8.4220582246780396e-01 -2.1096658706665039e-01</leafValues></_>
        <_>
          <internalNodes>
            0 -1 65 -4.8199747689068317e-03</internalNodes>
          <leafValues>
            6.5243613719940186e-01 -3.0000960826873779e-01</leafValues></_>
        <_>
          <internalNodes>
            0 -1 112 8.7603079155087471e-03</internalNodes>
          <leafValues>
            -2.8210467100143433e-01 6.5392589569091797e-01</leafValues></_>
        <_>
          <internalNodes>
            0 -1 79 -6.0067739104852080e-04</internalNodes>
          <leafValues>
            -7.5071305036544800e-01 2.8727647662162781e-01</leafValues></_></weakClassifiers></_>
    <!-- stage 10 -->
    <_>
      <maxWeakCount>7</maxWeakCount>
      <stageThreshold>-8.0652225017547607e-01</stageThreshold>
      <weakClassifiers>
        <_>
          <internalNodes>
            0 -1 36 1.2694124598056078e-03</internalNodes>
          <leafValues>
            -3.7187498807907104e-01 6.6111111640930176e-01</leafValues></_>
        <_>
          <internalNodes>
            0 -1 12 1.3147292193025351e-03</internalNodes>
          <leafValues>
            4.3745845556259155e-01 -4.9659615755081177e-01</leafValues></_>
        <_>
          <internalNodes>
            0 -1 95 1.5408370643854141e-02</internalNodes>
          <leafValues>
            -3.2990658283233643e-01 5.8591622114181519e-01</leafValues></_>
        <_>
          <internalNodes>
            0 -1 13 -8.3805378526449203e-03</internalNodes>
          <leafValues>
            5.9560549259185791e-01 -3.6971995234489441e-01</leafValues></_>
        <_>
          <internalNodes>
            0 -1 78 6.6521955886855721e-04</internalNodes>
          <leafValues>
            3.1083443760871887e-01 -7.3148584365844727e-01</leafValues></_>
        <_>
          <internalNodes>
            0 -1 80 -1.1629520449787378e-03</internalNodes>
          <leafValues>
            -7.0141386985778809e-01 2.7716973423957825e-01</leafValues></_>
        <_>
          <internalNodes>
            0 -1 19 -3.4812133759260178e-02</internalNodes>
          <leafValues>
            3.1436887383460999e-01 -6.2072771787643433e-01</leafValues></_></weakClassifiers></_>
    <!-- stage 11 -->
    <_>
      <maxWeakCount>6</maxWeakCount>
      <stageThreshold>-1.2622272968292236e+00</stageThreshold>
      <weakClassifiers>
        <_>
          <internalNodes>
            0 -1 92 -1.7562285065650940e-02</internalNodes>
          <leafValues>
            5.8295965194702148e-01 -4.6931406855583191e-01</leafValues></_>
        <_>
          <internalNodes>
            0 -1 64 9.0112880570814013e-04</internalNodes>
          <leafValues>
            3.3057406544685364e-01 -8.3159995079040527e-01</leafValues></_>
        <_>
          <internalNodes>
            0 -1 42 2.1231423597782850e-03</internalNodes>
          <leafValues>
            -3.5678502917289734e-01 8.1072884798049927e-01</leafValues></_>
        <_>
          <internalNodes>
            0 -1 110 1.3581373423221521e-05</internalNodes>
          <leafValues>
            -5.0152695178985596e-01 4.4801649451255798e-01</leafValues></_>
        <_>
          <internalNodes>
            0 -1 40 2.0260775461792946e-02</internalNodes>
          <leafValues>
            3.8252297043800354e-01 -5.5682748556137085e-01</leafValues></_>
        <_>
          <internalNodes>
            0 -1 34 -4.0497589856386185e-02</internalNodes>
          <leafValues>
            -8.5427606105804443e-01 2.9165214300155640e-01</leafValues></_></weakClassifiers></_>
    <!-- stage 12 -->
    <_>
      <maxWeakCount>6</maxWeakCount>
      <stageThreshold>-8.2643991708755493e-01</stageThreshold>
      <weakClassifiers>
        <_>
          <internalNodes>
            0 -1 83 4.4200858101248741e-03</internalNodes>
          <leafValues>
            -4.3112701177597046e-01 5.4648524522781372e-01</leafValues></_>
        <_>
          <internalNodes>
            0 -1 98 6.1164889484643936e-03</internalNodes>
          <leafValues>
            -6.6990566253662109e-01 3.5588109493255615e-01</leafValues></_>
        <_>
          <internalNodes>
            0 -1 48 5.1289843395352364e-04</internalNodes>
          <leafValues>
            -3.4626314043998718e-01 6.6875308752059937e-01</leafValues></_>
        <_>
          <internalNodes>
            0 -1 6 -9.1528408229351044e-03</internalNodes>
          <leafValues>
            6.7776775360107422e-01 -2.9867148399353027e-01</leafValues></_>
        <_>
          <internalNodes>
            0 -1 5 -1.1551893316209316e-02</internalNodes>
          <leafValues>
            7.4631404876708984e-01 -2.4946527183055878e-01</leafValues></_>
        <_>
          <internalNodes>
            0 -1 18 7.2148352861404419e-02</internalNodes>
          <leafValues>
            2.4256348609924316e-01 -8.5257345438003540e-01</leafValues></_></weakClassifiers></_>
    <!-- stage 13 -->
    <_>
      <maxWeakCount>9</maxWeakCount>
      <stageThreshold>-1.2154475450515747e+00</stageThreshold>
      <weakClassifiers>
        <_>
          <internalNodes>
            0 -1 102 1.9286762690171599e-03</internalNodes>
          <leafValues>
            -3.2047477364540100e-01 6.6257667541503906e-01</leafValues></_>
        <_>
          <internalNodes>
            0 -1 15 -7.2603174485266209e-03</internalNodes>
          <leafValues>
            4.2499226331710815e-01 -4.3705651164054871e-01</leafValues></_>
        <_>
          <internalNodes>
            0 -1 111 -1.6785665138741024e-05</internalNodes>
          <leafValues>
            -6.4856529235839844e-01 3.0610552430152893e-01</leafValues></_>
        <_>
          <internalNodes>
            0 -1 62 -2.9419660568237305e-03</internalNodes>
          <leafValues>
            -7.6368618011474609e-01 2.5974804162979126e-01</leafValues></_>
        <_>
          <internalNodes>
            0 -1 22 -7.1971124270930886e-05</internalNodes>
          <leafValues>
            2.3879480361938477e-01 -6.3725537061691284e-01</leafValues></_>
        <_>
          <internalNodes>
            0 -1 4 -1.4794806949794292e-02</internalNodes>
          <leafValues>
            5.2089077234268188e-01 -3.9525336027145386e-01</leafValues></_>
        <_>
          <internalNodes>
            0 -1 88 -9.8458565771579742e-03</internalNodes>
          <leafValues>
            5.4672491550445557e-01 -3.5316443443298340e-01</leafValues></_>
        <_>
          <internalNodes>
            0 -1 37 -5.2247652783989906e-03</internalNodes>
          <leafValues>
            -8.0855888128280640e-01 2.0894591510295868e-01</leafValues></_>
        <_>
          <internalNodes>
            0 -1 56 -8.9566921815276146e-04</internalNodes>
          <leafValues>
            -7.3382461071014404e-01 2.0773893594741821e-01</leafValues></_></weakClassifiers></_>
    <!-- stage 14 -->
    <_>
      <maxWeakCount>6</maxWeakCount>
      <stageThreshold>-7.1350735425949097e-01</stageThreshold>
      <weakClassifiers>
        <_>
          <internalNodes>
            0 -1 17 1.7254957929253578e-03</internalNodes>
          <leafValues>
            -4.3657329678535461e-01 6.7430025339126587e-01</leafValues></_>
        <_>
          <internalNodes>
            0 -1 23 1.6679347027093172e-05</internalNodes>
          <leafValues>
            4.2588421702384949e-01 -5.6955796480178833e-01</leafValues></_>
        <_>
          <internalNodes>
            0 -1 69 8.4724684711545706e-04</internalNodes>
          <leafValues>
            3.3169814944267273e-01 -7.0503932237625122e-01</leafValues></_>
        <_>
          <internalNodes>
            0 -1 99 -4.8741991631686687e-03</internalNodes>
          <leafValues>
            8.4116446971893311e-01 -3.0588331818580627e-01</leafValues></_>
        <_>
          <internalNodes>
            0 -1 66 1.1886183172464371e-02</internalNodes>
          <leafValues>
            -2.7978244423866272e-01 7.4486958980560303e-01</leafValues></_>
        <_>
          <internalNodes>
            0 -1 91 7.8530698374379426e-05</internalNodes>
          <leafValues>
            5.8788681030273438e-01 -3.6362761259078979e-01</leafValues></_></weakClassifiers></_>
    <!-- stage 15 -->
    <_>
      <maxWeakCount>6</maxWeakCount>
      <stageThreshold>-1.0395158529281616e+00</stageThreshold>
      <weakClassifiers>
        <_>
          <internalNodes>
            0 -1 90 3.6636930890381336e-03</internalNodes>
          <leafValues>
            -3.5593220591545105e-01 8.6301368474960327e-01</leafValues></_>
        <_>
          <internalNodes>
            0 -1 81 -2.1378872042987496e-04</internalNodes>
          <leafValues>
            -6.9464504718780518e-01 4.0347063541412354e-01</leafValues></_>
        <_>
          <internalNodes>
            0 -1 55 4.4626553426496685e-04</internalNodes>
          <leafValues>
            -4.1188201308250427e-01 7.8634703159332275e-01</leafValues></_>
        <_>
          <internalNodes>
            0 -1 76 3.6268547410145402e-04</internalNodes>
          <leafValues>
            4.5149523019790649e-01 -7.1199423074722290e-01</leafValues></_>
        <_>
          <internalNodes>
            0 -1 21 -3.7092468701303005e-03</internalNodes>
          <leafValues>
            7.3599207401275635e-01 -4.2199656367301941e-01</leafValues></_>
        <_>
          <internalNodes>
            0 -1 47 -8.2434788346290588e-02</internalNodes>
          <leafValues>
            4.5407453179359436e-01 -7.0467090606689453e-01</leafValues></_></weakClassifiers></_>
    <!-- stage 16 -->
    <_>
      <maxWeakCount>5</maxWeakCount>
      <stageThreshold>-6.8832486867904663e-01</stageThreshold>
      <weakClassifiers>
        <_>
          <internalNodes>
            0 -1 38 -1.3015678152441978e-02</internalNodes>
          <leafValues>
            1. -3.9860141277313232e-01</leafValues></_>
        <_>
          <internalNodes>
            0 -1 53 -4.9156723544001579e-03</internalNodes>
          <leafValues>
            -7.1108740568161011e-01 6.4257961511611938e-01</leafValues></_>
        <_>
          <internalNodes>
            0 -1 11 8.3691650070250034e-04</internalNodes>
          <leafValues>
            5.0757992267608643e-01 -8.6068516969680786e-01</leafValues></_>
        <_>
          <internalNodes>
            0 -1 113 -2.8766662580892444e-04</internalNodes>
          <leafValues>
            -6.1058390140533447e-01 6.0664075613021851e-01</leafValues></_>
        <_>
          <internalNodes>
            0 -1 25 -9.4792209565639496e-02</internalNodes>
          <leafValues>
            -8.2929909229278564e-01 5.5443990230560303e-01</leafValues></_></weakClassifiers></_>
    <!-- stage 17 -->
    <_>
      <maxWeakCount>2</maxWeakCount>
      <stageThreshold>5.8206319808959961e-02</stageThreshold>
      <weakClassifiers>
        <_>
          <internalNodes>
            0 -1 58 -4.0601490763947368e-04</internalNodes>
          <leafValues>
            -7.3913043737411499e-01 1.</leafValues></_>
        <_>
          <internalNodes>
            0 -1 82 -6.8159261718392372e-04</internalNodes>
          <leafValues>
            -9.4179368019104004e-01 8.0124598741531372e-01</leafValues></_></weakClassifiers></_>
    <!-- stage 18 -->
    <_>
      <maxWeakCount>1</maxWeakCount>
      <stageThreshold>1.</stageThreshold>
      <weakClassifiers>
        <_>
          <internalNodes>
            0 -1 1 3.0635241419076920e-02</internalNodes>
          <leafValues>
            1. -1.</leafValues></_></weakClassifiers></_></stages>
  <features>
    <_>
      <rects>
        <_>
          0 0 1 24 -1.</_>
        <_>
          0 12 1 12 2.</_></rects>
      <tilted>0</tilted></_>
    <_>
      <rects>
        <_>
          0 0 8 8 -1.</_>
        <_>
          0 0 4 4 2.</_>
        <_>
          4 4 4 4 2.</_></rects>
      <tilted>0</tilted></_>
    <_>
      <rects>
        <_>
          0 10 12 10 -1.</_>
        <_>
          0 10 6 5 2.</_>
        <_>
          6 15 6 5 2.</_></rects>
      <tilted>0</tilted></_>
    <_>
      <rects>
        <_>
          0 11 10 8 -1.</_>
        <_>
          0 11 5 4 2.</_>
        <_>
          5 15 5 4 2.</_></rects>
      <tilted>0</tilted></_>
    <_>
      <rects>
        <_>
          0 11 14 6 -1.</_>
        <_>
          0 11 7 3 2.</_>
        <_>
          7 14 7 3 2.</_></rects>
      <tilted>0</tilted></_>
    <_>
      <rects>
        <_>
          0 13 14 4 -1.</_>
        <_>
          0 13 7 2 2.</_>
        <_>
          7 15 7 2 2.</_></rects>
      <tilted>0</tilted></_>
    <_>
      <rects>
        <_>
          0 14 6 4 -1.</_>
        <_>
          3 14 3 4 2.</_></rects>
      <tilted>0</tilted></_>
    <_>
      <rects>
        <_>
          0 17 10 5 -1.</_>
        <_>
          5 17 5 5 2.</_></rects>
      <tilted>0</tilted></_>
    <_>
      <rects>
        <_>
          0 18 8 4 -1.</_>
        <_>
          4 18 4 4 2.</_></rects>
      <tilted>0</tilted></_>
    <_>
      <rects>
        <_>
          0 18 16 4 -1.</_>
        <_>
          8 18 8 4 2.</_></rects>
      <tilted>0</tilted></_>
    <_>
      <rects>
        <_>
          0 19 12 4 -1.</_>
        <_>
          6 19 6 4 2.</_></rects>
      <tilted>0</tilted></_>
    <_>
      <rects>
        <_>
          0 20 3 3 -1.</_>
        <_>
          1 20 1 3 3.</_></rects>
      <tilted>0</tilted></_>
    <_>
      <rects>
        <_>
          0 21 27 3 -1.</_>
        <_>
          9 21 9 3 3.</_></rects>
      <tilted>0</tilted></_>
    <_>
      <rects>
        <_>
          1 13 6 6 -1.</_>
        <_>
          4 13 3 6 2.</_></rects>
      <tilted>0</tilted></_>
    <_>
      <rects>
        <_>
          1 15 4 7 -1.</_>
        <_>
          3 15 2 7 2.</_></rects>
      <tilted>0</tilted></_>
    <_>
      <rects>
        <_>
          3 16 28 4 -1.</_>
        <_>
          3 16 14 2 2.</_>
        <_>
          17 18 14 2 2.</_></rects>
      <tilted>0</tilted></_>
    <_>
      <rects>
        <_>
          3 18 4 3 -1.</_>
        <_>
          5 18 2 3 2.</_></rects>
      <tilted>0</tilted></_>
    <_>
      <rects>
        <_>
          4 16 10 2 -1.</_>
        <_>
          4 16 5 1 2.</_>
        <_>
          9 17 5 1 2.</_></rects>
      <tilted>0</tilted></_>
    <_>
      <rects>
        <_>
          5 11 36 10 -1.</_>
        <_>
          23 11 18 10 2.</_></rects>
      <tilted>0</tilted></_>
    <_>
      <rects>
        <_>
          5 12 13 12 -1.</_>
        <_>
          5 16 13 4 3.</_></rects>
      <tilted>0</tilted></_>
    <_>
      <rects>
        <_>
          5 12 37 12 -1.</_>
        <_>
          5 16 37 4 3.</_></rects>
      <tilted>0</tilted></_>
    <_>
      <rects>
        <_>
          5 16 12 6 -1.</_>
        <_>
          5 16 6 3 2.</_>
        <_>
          11 19 6 3 2.</_></rects>
      <tilted>0</tilted></_>
    <_>
      <rects>
        <_>
          5 19 2 4 -1.</_>
        <_>
          6 19 1 4 2.</_></rects>
      <tilted>0</tilted></_>
    <_>
      <rects>
        <_>
          5 20 6 3 -1.</_>
        <_>
          8 20 3 3 2.</_></rects>
      <tilted>0</tilted></_>
    <_>
      <rects>
        <_>
          5 20 37 4 -1.</_>
        <_>
          5 22 37 2 2.</_></rects>
      <tilted>0</tilted></_>
    <_>
      <rects>
        <_>
          6 2 42 22 -1.</_>
        <_>
          6 2 21 11 2.</_>
        <_>
          27 13 21 11 2.</_></rects>
      <tilted>0</tilted></_>
    <_>
      <rects>
        <_>
          6 12 11 12 -1.</_>
        <_>
          6 16 11 4 3.</_></rects>
      <tilted>0</tilted></_>
    <_>
      <rects>
        <_>
          6 18 27 6 -1.</_>
        <_>
          6 20 27 2 3.</_></rects>
      <tilted>0</tilted></_>
    <_>
      <rects>
        <_>
          7 15 6 4 -1.</_>
        <_>
          7 15 3 2 2.</_>
        <_>
          10 17 3 2 2.</_></rects>
      <tilted>0</tilted></_>
    <_>
      <rects>
        <_>
          7 20 6 3 -1.</_>
        <_>
          7 21 6 1 3.</_></rects>
      <tilted>0</tilted></_>
    <_>
      <rects>
        <_>
          7 20 34 4 -1.</_>
        <_>
          7 22 34 2 2.</_></rects>
      <tilted>0</tilted></_>
    <_>
      <rects>
        <_>
          8 9 32 9 -1.</_>
        <_>
          8 12 32 3 3.</_></rects>
      <tilted>0</tilted></_>
    <_>
      <rects>
        <_>
          8 11 9 12 -1.</_>
        <_>
          8 15 9 4 3.</_></rects>
      <tilted>0</tilted></_>
    <_>
      <rects>
        <_>
          8 12 34 4 -1.</_>
        <_>
          8 14 34 2 2.</_></rects>
      <tilted>0</tilted></_>
    <_>
      <rects>
        <_>
          8 14 32 9 -1.</_>
        <_>
          24 14 16 9 2.</_></rects>
      <tilted>0</tilted></_>
    <_>
      <rects>
        <_>
          8 15 6 8 -1.</_>
        <_>
          10 15 2 8 3.</_></rects>
      <tilted>0</tilted></_>
    <_>
      <rects>
        <_>
          8 17 4 2 -1.</_>
        <_>
          10 17 2 2 2.</_></rects>
      <tilted>0</tilted></_>
    <_>
      <rects>
        <_>
          8 22 21 2 -1.</_>
        <_>
          15 22 7 2 3.</_></rects>
      <tilted>0</tilted></_>
    <_>
      <rects>
        <_>
          9 12 5 6 -1.</_>
        <_>
          9 15 5 3 2.</_></rects>
      <tilted>0</tilted></_>
    <_>
      <rects>
        <_>
          9 15 12 4 -1.</_>
        <_>
          9 15 6 2 2.</_>
        <_>
          15 17 6 2 2.</_></rects>
      <tilted>0</tilted></_>
    <_>
      <rects>
        <_>
          10 13 32 7 -1.</_>
        <_>
          26 13 16 7 2.</_></rects>
      <tilted>0</tilted></_>
    <_>
      <rects>
        <_>
          10 14 8 6 -1.</_>
        <_>
          10 14 4 3 2.</_>
        <_>
          14 17 4 3 2.</_></rects>
      <tilted>0</tilted></_>
    <_>
      <rects>
        <_>
          10 15 3 9 -1.</_>
        <_>
          11 15 1 9 3.</_></rects>
      <tilted>0</tilted></_>
    <_>
      <rects>
        <_>
          10 15 9 5 -1.</_>
        <_>
          13 15 3 5 3.</_></rects>
      <tilted>0</tilted></_>
    <_>
      <rects>
        <_>
          10 15 8 4 -1.</_>
        <_>
          10 15 4 2 2.</_>
        <_>
          14 17 4 2 2.</_></rects>
      <tilted>0</tilted></_>
    <_>
      <rects>
        <_>
          10 17 9 3 -1.</_>
        <_>
          13 17 3 3 3.</_></rects>
      <tilted>0</tilted></_>
    <_>
      <rects>
        <_>
          11 11 1 9 -1.</_>
        <_>
          11 14 1 3 3.</_></rects>
      <tilted>0</tilted></_>
    <_>
      <rects>
        <_>
          11 12 34 12 -1.</_>
        <_>
          11 16 34 4 3.</_></rects>
      <tilted>0</tilted></_>
    <_>
      <rects>
        <_>
          11 15 2 2 -1.</_>
        <_>
          11 16 2 1 2.</_></rects>
      <tilted>0</tilted></_>
    <_>
      <rects>
        <_>
          11 15 6 4 -1.</_>
        <_>
          11 15 3 2 2.</_>
        <_>
          14 17 3 2 2.</_></rects>
      <tilted>0</tilted></_>
    <_>
      <rects>
        <_>
          11 17 4 3 -1.</_>
        <_>
          13 17 2 3 2.</_></rects>
      <tilted>0</tilted></_>
    <_>
      <rects>
        <_>
          12 13 1 6 -1.</_>
        <_>
          12 15 1 2 3.</_></rects>
      <tilted>0</tilted></_>
    <_>
      <rects>
        <_>
          12 20 26 3 -1.</_>
        <_>
          12 21 26 1 3.</_></rects>
      <tilted>0</tilted></_>
    <_>
      <rects>
        <_>
          13 18 28 2 -1.</_>
        <_>
          27 18 14 2 2.</_></rects>
      <tilted>0</tilted></_>
    <_>
      <rects>
        <_>
          14 9 2 12 -1.</_>
        <_>
          14 15 2 6 2.</_></rects>
      <tilted>0</tilted></_>
    <_>
      <rects>
        <_>
          14 11 6 9 -1.</_>
        <_>
          16 11 2 9 3.</_></rects>
      <tilted>0</tilted></_>
    <_>
      <rects>
        <_>
          14 15 15 1 -1.</_>
        <_>
          19 15 5 1 3.</_></rects>
      <tilted>0</tilted></_>
    <_>
      <rects>
        <_>
          14 20 25 4 -1.</_>
        <_>
          14 22 25 2 2.</_></rects>
      <tilted>0</tilted></_>
    <_>
      <rects>
        <_>
          15 12 4 4 -1.</_>
        <_>
          15 12 2 2 2.</_>
        <_>
          17 14 2 2 2.</_></rects>
      <tilted>0</tilted></_>
    <_>
      <rects>
        <_>
          15 15 11 9 -1.</_>
        <_>
          15 18 11 3 3.</_></rects>
      <tilted>0</tilted></_>
    <_>
      <rects>
        <_>
          16 13 10 4 -1.</_>
        <_>
          16 13 5 2 2.</_>
        <_>
          21 15 5 2 2.</_></rects>
      <tilted>0</tilted></_>
    <_>
      <rects>
        <_>
          16 13 12 4 -1.</_>
        <_>
          22 13 6 4 2.</_></rects>
      <tilted>0</tilted></_>
    <_>
      <rects>
        <_>
          16 14 6 8 -1.</_>
        <_>
          16 14 3 4 2.</_>
        <_>
          19 18 3 4 2.</_></rects>
      <tilted>0</tilted></_>
    <_>
      <rects>
        <_>
          16 16 28 4 -1.</_>
        <_>
          16 16 14 2 2.</_>
        <_>
          30 18 14 2 2.</_></rects>
      <tilted>0</tilted></_>
    <_>
      <rects>
        <_>
          18 17 6 3 -1.</_>
        <_>
          20 17 2 3 3.</_></rects>
      <tilted>0</tilted></_>
    <_>
      <rects>
        <_>
          18 18 13 3 -1.</_>
        <_>
          18 19 13 1 3.</_></rects>
      <tilted>0</tilted></_>
    <_>
      <rects>
        <_>
          19 5 13 6 -1.</_>
        <_>
          19 7 13 2 3.</_></rects>
      <tilted>0</tilted></_>
    <_>
      <rects>
        <_>
          19 16 6 3 -1.</_>
        <_>
          21 16 2 3 3.</_></rects>
      <tilted>0</tilted></_>
    <_>
      <rects>
        <_>
          19 17 6 2 -1.</_>
        <_>
          21 17 2 2 3.</_></rects>
      <tilted>0</tilted></_>
    <_>
      <rects>
        <_>
          20 14 6 4 -1.</_>
        <_>
          22 14 2 4 3.</_></rects>
      <tilted>0</tilted></_>
    <_>
      <rects>
        <_>
          21 6 20 6 -1.</_>
        <_>
          21 6 10 3 2.</_>
        <_>
          31 9 10 3 2.</_></rects>
      <tilted>0</tilted></_>
    <_>
      <rects>
        <_>
          22 16 6 6 -1.</_>
        <_>
          25 16 3 6 2.</_></rects>
      <tilted>0</tilted></_>
    <_>
      <rects>
        <_>
          22 17 6 1 -1.</_>
        <_>
          25 17 3 1 2.</_></rects>
      <tilted>0</tilted></_>
    <_>
      <rects>
        <_>
          23 7 19 12 -1.</_>
        <_>
          23 11 19 4 3.</_></rects>
      <tilted>0</tilted></_>
    <_>
      <rects>
        <_>
          23 8 14 10 -1.</_>
        <_>
          23 8 7 5 2.</_>
        <_>
          30 13 7 5 2.</_></rects>
      <tilted>0</tilted></_>
    <_>
      <rects>
        <_>
          23 15 4 3 -1.</_>
        <_>
          25 15 2 3 2.</_></rects>
      <tilted>0</tilted></_>
    <_>
      <rects>
        <_>
          23 17 3 5 -1.</_>
        <_>
          24 17 1 5 3.</_></rects>
      <tilted>0</tilted></_>
    <_>
      <rects>
        <_>
          24 16 4 3 -1.</_>
        <_>
          26 16 2 3 2.</_></rects>
      <tilted>0</tilted></_>
    <_>
      <rects>
        <_>
          24 18 4 6 -1.</_>
        <_>
          24 18 2 3 2.</_>
        <_>
          26 21 2 3 2.</_></rects>
      <tilted>0</tilted></_>
    <_>
      <rects>
        <_>
          26 22 6 2 -1.</_>
        <_>
          28 22 2 2 3.</_></rects>
      <tilted>0</tilted></_>
    <_>
      <rects>
        <_>
          27 14 6 8 -1.</_>
        <_>
          29 14 2 8 3.</_></rects>
      <tilted>0</tilted></_>
    <_>
      <rects>
        <_>
          27 15 2 3 -1.</_>
        <_>
          28 15 1 3 2.</_></rects>
      <tilted>0</tilted></_>
    <_>
      <rects>
        <_>
          27 16 2 6 -1.</_>
        <_>
          28 16 1 6 2.</_></rects>
      <tilted>0</tilted></_>
    <_>
      <rects>
        <_>
          28 16 10 4 -1.</_>
        <_>
          28 16 5 2 2.</_>
        <_>
          33 18 5 2 2.</_></rects>
      <tilted>0</tilted></_>
    <_>
      <rects>
        <_>
          28 17 9 4 -1.</_>
        <_>
          31 17 3 4 3.</_></rects>
      <tilted>0</tilted></_>
    <_>
      <rects>
        <_>
          28 20 6 4 -1.</_>
        <_>
          28 22 6 2 2.</_></rects>
      <tilted>0</tilted></_>
    <_>
      <rects>
        <_>
          29 19 16 5 -1.</_>
        <_>
          37 19 8 5 2.</_></rects>
      <tilted>0</tilted></_>
    <_>
      <rects>
        <_>
          30 20 5 4 -1.</_>
        <_>
          30 22 5 2 2.</_></rects>
      <tilted>0</tilted></_>
    <_>
      <rects>
        <_>
          31 8 2 12 -1.</_>
        <_>
          31 14 2 6 2.</_></rects>
      <tilted>0</tilted></_>
    <_>
      <rects>
        <_>
          31 15 6 4 -1.</_>
        <_>
          31 15 3 2 2.</_>
        <_>
          34 17 3 2 2.</_></rects>
      <tilted>0</tilted></_>
    <_>
      <rects>
        <_>
          32 15 6 4 -1.</_>
        <_>
          32 15 3 2 2.</_>
        <_>
          35 17 3 2 2.</_></rects>
      <tilted>0</tilted></_>
    <_>
      <rects>
        <_>
          32 18 6 4 -1.</_>
        <_>
          32 20 6 2 2.</_></rects>
      <tilted>0</tilted></_>
    <_>
      <rects>
        <_>
          33 12 7 9 -1.</_>
        <_>
          33 15 7 3 3.</_></rects>
      <tilted>0</tilted></_>
    <_>
      <rects>
        <_>
          33 17 6 3 -1.</_>
        <_>
          35 17 2 3 3.</_></rects>
      <tilted>0</tilted></_>
    <_>
      <rects>
        <_>
          34 11 3 6 -1.</_>
        <_>
          34 14 3 3 2.</_></rects>
      <tilted>0</tilted></_>
    <_>
      <rects>
        <_>
          34 12 14 6 -1.</_>
        <_>
          34 12 7 3 2.</_>
        <_>
          41 15 7 3 2.</_></rects>
      <tilted>0</tilted></_>
    <_>
      <rects>
        <_>
          34 16 14 7 -1.</_>
        <_>
          41 16 7 7 2.</_></rects>
      <tilted>0</tilted></_>
    <_>
      <rects>
        <_>
          34 17 3 3 -1.</_>
        <_>
          35 17 1 3 3.</_></rects>
      <tilted>0</tilted></_>
    <_>
      <rects>
        <_>
          34 18 14 5 -1.</_>
        <_>
          41 18 7 5 2.</_></rects>
      <tilted>0</tilted></_>
    <_>
      <rects>
        <_>
          35 11 1 9 -1.</_>
        <_>
          35 14 1 3 3.</_></rects>
      <tilted>0</tilted></_>
    <_>
      <rects>
        <_>
          35 13 1 6 -1.</_>
        <_>
          35 15 1 2 3.</_></rects>
      <tilted>0</tilted></_>
    <_>
      <rects>
        <_>
          35 15 8 4 -1.</_>
        <_>
          35 15 4 2 2.</_>
        <_>
          39 17 4 2 2.</_></rects>
      <tilted>0</tilted></_>
    <_>
      <rects>
        <_>
          35 16 3 6 -1.</_>
        <_>
          36 16 1 6 3.</_></rects>
      <tilted>0</tilted></_>
    <_>
      <rects>
        <_>
          35 17 3 2 -1.</_>
        <_>
          36 17 1 2 3.</_></rects>
      <tilted>0</tilted></_>
    <_>
      <rects>
        <_>
          37 18 10 6 -1.</_>
        <_>
          42 18 5 6 2.</_></rects>
      <tilted>0</tilted></_>
    <_>
      <rects>
        <_>
          38 6 10 16 -1.</_>
        <_>
          38 6 5 8 2.</_>
        <_>
          43 14 5 8 2.</_></rects>
      <tilted>0</tilted></_>
    <_>
      <rects>
        <_>
          38 10 10 10 -1.</_>
        <_>
          38 10 5 5 2.</_>
        <_>
          43 15 5 5 2.</_></rects>
      <tilted>0</tilted></_>
    <_>
      <rects>
        <_>
          38 18 10 2 -1.</_>
        <_>
          43 18 5 2 2.</_></rects>
      <tilted>0</tilted></_>
    <_>
      <rects>
        <_>
          39 18 8 4 -1.</_>
        <_>
          43 18 4 4 2.</_></rects>
      <tilted>0</tilted></_>
    <_>
      <rects>
        <_>
          40 15 8 3 -1.</_>
        <_>
          44 15 4 3 2.</_></rects>
      <tilted>0</tilted></_>
    <_>
      <rects>
        <_>
          40 20 2 3 -1.</_>
        <_>
          41 20 1 3 2.</_></rects>
      <tilted>0</tilted></_>
    <_>
      <rects>
        <_>
          41 19 2 3 -1.</_>
        <_>
          42 19 1 3 2.</_></rects>
      <tilted>0</tilted></_>
    <_>
      <rects>
        <_>
          42 14 6 6 -1.</_>
        <_>
          45 14 3 6 2.</_></rects>
      <tilted>0</tilted></_>
    <_>
      <rects>
        <_>
          44 12 4 1 -1.</_>
        <_>
          46 12 2 1 2.</_></rects>
      <tilted>0</tilted></_></features></cascade>
</opencv_storage>
