<?xml version="1.0"?>
<opencv_storage>
<stage4>
  <maxWeakCount>7</maxWeakCount>
  <stageThreshold>-9.3378698825836182e-01</stageThreshold>
  <weakClassifiers>
    <_>
      <internalNodes>
        0 -1 1981260 6.1654006130993366e-03</internalNodes>
      <leafValues>
        -4.7581553459167480e-01 6.5414601564407349e-01</leafValues></_>
    <_>
      <internalNodes>
        0 -1 2570673 4.0616369806230068e-03</internalNodes>
      <leafValues>
        -3.4535810351371765e-01 7.7011048793792725e-01</leafValues></_>
    <_>
      <internalNodes>
        0 -1 2558115 2.6164157316088676e-03</internalNodes>
      <leafValues>
        -3.6808609962463379e-01 6.3279891014099121e-01</leafValues></_>
    <_>
      <internalNodes>
        0 -1 1967093 1.5213886275887489e-02</internalNodes>
      <leafValues>
        -3.6931136250495911e-01 6.0255879163742065e-01</leafValues></_>
    <_>
      <internalNodes>
        0 -1 861093 1.8892078660428524e-03</internalNodes>
      <leafValues>
        -2.5887402892112732e-01 8.2138615846633911e-01</leafValues></_>
    <_>
      <internalNodes>
        0 -1 2184042 1.3439252506941557e-03</internalNodes>
      <leafValues>
        -4.0446674823760986e-01 5.8683878183364868e-01</leafValues></_>
    <_>
      <internalNodes>
        0 -1 311784 8.1011082511395216e-04</internalNodes>
      <leafValues>
        3.1625470519065857e-01 -9.5223820209503174e-01</leafValues></_></weakClassifiers></stage4>
</opencv_storage>
